490.874;-21616
497.396;-23350
474.753;-14456
492.641;-22175
492.837;-22310
491.176;-21691
489.608;-21184
500.298;-24254
476.528;-15414
498.22;-23719
494.733;-22847
496.088;-23172
494.227;-22637
472.839;-13245
494.865;-22857
497.692;-23509
497.562;-23499
472.078;-12624
471.847;-12492
473.668;-13703
470.91;-11738
499.942;-24141
499.705;-24044
483.572;-19033
472.274;-12810
498.455;-23816
473.513;-13696
470.202;-11148
470.688;-11567
475.903;-15221
471.099;-11902
469.979;-10977
491.275;-21718
473.066;-13378
484.482;-19203
469.801;-10868
471.314;-12057
470.025;-11051
486.019;-19972
485.066;-19667
470.206;-11215
484.698;-19545
470.438;-11386
471.101;-11914
469.984;-11031
491.598;-21985
470.598;-11479
491.576;-21793
476.585;-15546
486.387;-20094
474.353;-14315
502.557;-24801
496.218;-23182
474.113;-14131
471.855;-12558
470.184;-11132
472.414;-12817
469.798;-10813
470.204;-11160
469.321;-10378
471.336;-12140
493.277;-22346
490.495;-21576
498.534;-23827
490.038;-21366
469.706;-10547
469.126;-10223
477.724;-16205
469.128;-10278
476.338;-15413
469.724;-10674
468.87;-9848
498.813;-23929
472.841;-13257
485.563;-19677
468.955;-10114
473.068;-13390
472.501;-12943
477.467;-16072
482.121;-18292
482.1;-18279
481.81;-18190
470.405;-11264
501.483;-24474
477.077;-15974
481.264;-17954
477.462;-16021
477.465;-16033
471.313;-12018
486.682;-20312
468.501;-9529
468.674;-9788
471.317;-12069
497.904;-23612
475.656;-15088
474.549;-14335
487.731;-20637
487.222;-20504
473.069;-13429
475.189;-14660
470.693;-11621
482.673;-18708
484.487;-19251
494.968;-22955
491.9;-22060
495.402;-23040
483.257;-18824
468.676;-9843
471.628;-12320
469.324;-10433
468.503;-9679
474.116;-14182
469.502;-10542
485.668;-19870
492.057;-22168
482.835;-18760
471.85;-12504
476.971;-15593
468.316;-9524
468.243;-9203
490.088;-21523
486.035;-19992
471.745;-12404
475.461;-15068
477.995;-16300
479.749;-17283
481.136;-17917
474.757;-14507
475.379;-14661
493.614;-22630
480.569;-17801
480.428;-17437
472.082;-12750
478.452;-16530
473.671;-13754
475.846;-15089
483.903;-19135
478.19;-16346
478.193;-16358
467.885;-8939
468.246;-9258
479.649;-17112
476.143;-15393
480.023;-17373
478.97;-16958
467.699;-8711
465.851;-5969
473.073;-13503
499.39;-23937
496.412;-23282
480.974;-17865
467.887;-9089
468.072;-9094
466.745;-7825
465.688;-5941
487.719;-20514
466.042;-6376
473.31;-13636
473.279;-13592
474.993;-14640
481.405;-18126
489.737;-21291
472.645;-12949
467.133;-8260
466.414;-7271
471.105;-11956
470.832;-11705
471.514;-12220
482.412;-18381
488.27;-20829
488.106;-20739
488.956;-21149
488.645;-20931
484.156;-19149
465.529;-5875
477.805;-16299
467.477;-8504
466.044;-6836
466.206;-6864
465.19;-4980
466.372;-6930
550.836;-33100
516.155;-28226
513.453;-27574
515.119;-28004
516.928;-28356
511.599;-27204
514.344;-27874
515.956;-28132
515.712;-28114
512.272;-27327
509.999;-26772
517.377;-28463
521.205;-29247
521.759;-29352
518.715;-28784
512.397;-27330
522.389;-29546
512.458;-27424
502.87;-24904
547.693;-32747
528.946;-30577
520.977;-29181
524.068;-29704
509.31;-26607
530.088;-30663
527.826;-30361
513.22;-27556
536.149;-31356
514.019;-27682
533.152;-31015
534.357;-31231
528.419;-30466
520.751;-29136
525.775;-30114
517.129;-28367
530.721;-30768
533.141;-31005
527.656;-30230
538.232;-31751
510.836;-27072
531.852;-30837
514.11;-27856
521.828;-29357
509.464;-26662
516.747;-28336
514.909;-27982
511.035;-27094
532.011;-30929
503.613;-25204
503.216;-24995
563.498;-34360
502.385;-24794
596.418;-36746
587.838;-36190
561.391;-34224
505.143;-25574
560.916;-34215
504.941;-25556
579.878;-35774
550.942;-33224
501.629;-24644
532.081;-30992
533.92;-31183
536.349;-31560
601.989;-37123
596.932;-36842
572.152;-35180
583.497;-36003
517.696;-28636
581.508;-35818
570.422;-35012
575.438;-35360
559.256;-34047
515.306;-28048
507.883;-26340
504.305;-25336
569.196;-34986
562.272;-34334
577.713;-35554
542.462;-32214
572.71;-35215
523.512;-29599
511.589;-27124
518.469;-28766
607.255;-37233
537.193;-31598
567.063;-34809
575.582;-35377
512.658;-27446
580.447;-35809
510.197;-26916
589.176;-36204
506.383;-25832
511.82;-27268
560.842;-34189
582.079;-35951
557.466;-33862
579.975;-35800
516.71;-28307
590.275;-36339
513.869;-27635
514.896;-27904
524.695;-29898
553.454;-33395
524.557;-29815
601.48;-37085
535.144;-31344
513.077;-27553
557.568;-33986
564.482;-34554
622.806;-38072
528.411;-30389
560.138;-34157
561.723;-34299
571.358;-35122
603.424;-37195
539.255;-31927
501.821;-24662
512.451;-27403
537.555;-31646
505.632;-25688
526.918;-30200
599.724;-36954
500.418;-24292
507.172;-26132
551.772;-33334
503.052;-24926
539.933;-32032
508.536;-26420
555.024;-33607
613.477;-37873
501.174;-24442
594.433;-36548
598.297;-36882
610.962;-37696
584.96;-36122
549.235;-33039
504.379;-25424
592.072;-36413
607.45;-37253
585.772;-36135
610.929;-37638
556.431;-33726
621.368;-37947
510.139;-26785
618.805;-37878
596.927;-36757
592.693;-36534
599.511;-36916
595.869;-36705
597.784;-36873
621.414;-38055
612.933;-37806
600.105;-37013
622.297;-38063
623.516;-38166
501.078;-24424
519.341;-28894
613.444;-37815
603.935;-37204
623.007;-38157
556.733;-33792
545.979;-32572
506.42;-25988
589.873;-36262
619.349;-37945
573.561;-35299
525.184;-30009
567.048;-34725
581.608;-35942
568.64;-34951
623.552;-38224
550.932;-33140
579.859;-35690
585.774;-36180
571.915;-35157
566.177;-34615
564.047;-34395
511.71;-27217
544.163;-32495
554.239;-33502
541.199;-32034
553.983;-33408
547.884;-32953
509.36;-26616
502.153;-24767
541.509;-32086
554.569;-33601
546.108;-32672
542.93;-32385
546.166;-32686
528.911;-30529
502.346;-24785
503.795;-25226
545.38;-32567
575.639;-35466
508.635;-26484
542.244;-32196
505.874;-25722
607.547;-37467
626.533;-38329
517.142;-28445
915.669;-42539
913.237;-42529
908.963;-42509
904.213;-42505
901.411;-42503
900.29;-42494
892.382;-42479
890.134;-42469
890.084;-42465
889.288;-42442
886.76;-42437
882.207;-42433
879.31;-42431
876.305;-42394
871.57;-42378
856.37;-42306
854.286;-42296
843.397;-42227
842.841;-42221
837.445;-42209
835.707;-42203
834.912;-42180
832.738;-42166
830.779;-42162
827.419;-42142
826.852;-42131
820.516;-42101
818.671;-42070
814.056;-42021
811.61;-41999
811.41;-41969
810.356;-41966
806.318;-41960
789.792;-41804
788.257;-41798
780.981;-41723
641.107;-38767
844.006;-42231
945.134;-42579
803.521;-41951
822.245;-42119
819.698;-42083
816.959;-42057
816.717;-42022
932.099;-42567
845.038;-42287
823.041;-42122
876.47;-42408
876.316;-42404
871.413;-42375
872.59;-42389
870.746;-42372
896.344;-42488
922.187;-42552
916.873;-42547
863.396;-42371
929.099;-42559
855.678;-42298
923.773;-42558
844.998;-42252
745.005;-41356
710.037;-40966
746.172;-41416
700.505;-40895
798.306;-41904
712.724;-40980
728.435;-41290
694.926;-40754
749.994;-41515
746.1;-41370
677.94;-40349
770.698;-41722
713.221;-41004
735.94;-41346
713.391;-41106
798.852;-41905
796.469;-41881
732.105;-41291
746.83;-41496
715.53;-41130
722.439;-41156
781.439;-41761
758.949;-41572
733.159;-41336
795.354;-41859
795.053;-41855
727.313;-41188
796.952;-41883
794.958;-41853
680.121;-40453
767.761;-41640
770.186;-41675
794.416;-41848
687.954;-40623
755.78;-41553
768.379;-41647
768.283;-41645
685.517;-40600
698.658;-40759
698.431;-40755
688.741;-40652
633.111;-38592
703.495;-40954
769.725;-41673
651.3;-39313
792.905;-41831
647.502;-39281
652.282;-39592
766.32;-41623
656.961;-39731
661.839;-39960
633.803;-38704
652.008;-39513
633.416;-38671
666.191;-40106
639.544;-38766
631.97;-38482
699.475;-40818
641.255;-38954
744.765;-41354
661.653;-39825
672.668;-40320
643.4;-39166
641.331;-39093
658.219;-39812
641.962;-39156
666.144;-40082
680.624;-40459
668.695;-40107
644.145;-39279
630.948;-38442
662.724;-40076
689.346;-40736
652.983;-39708
671.562;-40289
672.283;-40300
673.154;-40322
669.46;-40201
641.587;-39129
635.14;-38765
781.37;-41727
805.434;-41952
853.415;-42293
841.02;-42212
951.023;-42590
957.353;-42594
960.653;-42595
