464.975;-4938
466.065;-5562
476.239;-9079
475.251;-8881
465.392;-5182
473.045;-8158
476.234;-9040
473.034;-8119
479.326;-9863
478.756;-9802
478.245;-9664
478.751;-9665
476.258;-9154
464.987;-4975
472.574;-8058
465.231;-5106
474.783;-8743
475.874;-9010
473.898;-8487
478.78;-9839
466.83;-5867
466.816;-5830
466.477;-5737
466.483;-5806
473.091;-8267
474.363;-8685
476.367;-9172
474.319;-8545
472.151;-7863
472.154;-8000
473.999;-8500
477.788;-9606
475.267;-8921
468.745;-6721
477.254;-9368
477.765;-9429
493.624;-12263
472.614;-8061
469.192;-6896
469.403;-7016
480.611;-10130
493.054;-12238
467.108;-5929
465.758;-5401
471.017;-7544
469.77;-7177
468.031;-6454
470.203;-7277
481.653;-10350
464.669;-4914
468.478;-6629
471.724;-7862
463.684;-4290
489.957;-11803
481.082;-10289
465.08;-4996
473.471;-8349
468.758;-6796
497.589;-12750
471.032;-7619
472.689;-8106
492.836;-12163
473.531;-8362
472.173;-8037
464.667;-4777
489.12;-11676
494.232;-12356
480.04;-10069
487.823;-11434
487.252;-11409
501.016;-13185
463.9;-4371
486.043;-11118
467.29;-6124
469.786;-7214
497.021;-12725
495.946;-12530
462.092;-2994
484.394;-10974
462.091;-2968
495.377;-12505
496.552;-12623
464.662;-4752
465.642;-5263
483.189;-10617
463.394;-3967
462.788;-3484
463.678;-4128
462.956;-3672
481.109;-10326
462.104;-3030
462.384;-3087
483.194;-10754
461.692;-2763
464.599;-4639
466.077;-5637
474.988;-8754
475.723;-8979
464.379;-4591
498.195;-12843
464.187;-4482
464.095;-4372
463.229;-3778
463.231;-3804
471.449;-7680
474.339;-8582
467.115;-6073
461.978;-2767
488.47;-11478
486.262;-11241
486.691;-11316
476.789;-9230
488.561;-11583
463.899;-4296
477.77;-9566
462.795;-3573
462.502;-3480
468.423;-6590
468.025;-6385
464.188;-4557
465.954;-5449
468.044;-6529
480.035;-9932
467.625;-6285
469.138;-6857
470.187;-7238
486.636;-11248
476.815;-9246
482.646;-10593
469.765;-7070
461.686;-2674
482.616;-10556
481.658;-10487
490.516;-11896
491.085;-11921
486.075;-11155
473.111;-8304
485.405;-10991
461.685;-2429
476.769;-9215
461.685;-2354
465.231;-5181
505.942;-13672
462.383;-3061
475.453;-8952
468.038;-6460
476.747;-9178
462.956;-3747
492.279;-12070
467.46;-6172
461.605;-2281
461.318;-2277
489.091;-11590
460.944;-1957
462.499;-3161
460;-0
461.317;-2251
471.304;-7664
460.944;-1712
460.944;-1637
461.311;-2162
461.312;-2188
479.531;-9931
469.367;-6970
463.249;-3840
470.218;-7352
470.584;-7444
460.288;-486
460.289;-959
463.396;-4104
470.602;-7481
466.389;-5668
467.64;-6322
462.502;-3235
473.062;-8233
460.602;-1445
460.603;-1471
864.962;-20741
854.861;-20712
678.595;-19852
532.047;-15925
523.123;-15333
526.867;-15472
537.1;-16246
549.059;-16834
528.281;-15625
516.403;-14692
522.301;-15298
536.085;-16207
553.346;-16971
505.806;-13665
536.207;-16211
509.579;-14104
527.801;-15511
510.352;-14237
518.541;-15012
517.188;-14732
553.444;-17081
531.106;-15886
511.719;-14424
504.882;-13649
572.27;-17713
532.975;-15946
519.464;-15037
571.147;-17708
551.089;-16878
532.888;-15930
550.262;-16859
566.886;-17629
529.882;-15774
508.759;-14079
579.617;-17996
576.928;-17880
523.9;-15414
503.293;-13491
566.055;-17606
528.989;-15739
533.096;-15950
593.655;-18524
555.912;-17236
586.269;-18278
548.166;-16799
541.619;-16373
551.54;-16936
517.773;-14865
513.1;-14540
507.454;-13952
499.857;-13019
504.497;-13607
521.756;-15089
509.967;-14126
506.061;-13677
502.038;-13216
516.412;-14714
515.769;-14677
502.062;-13304
596.077;-18587
599.349;-18608
543.347;-16609
538.084;-16327
553.684;-17120
555.675;-17197
507.397;-13823
584.81;-18217
542.92;-16385
591.463;-18499
579.758;-18106
577.067;-17990
515.033;-14598
533.709;-15965
523.223;-15337
510.323;-14149
590.658;-18476
538.976;-16362
550.197;-16843
506.086;-13765
561.803;-17518
561.7;-17408
500.639;-13114
543.609;-16648
533.813;-15969
575.931;-17814
587.892;-18414
601.379;-18684
601.238;-18675
818.618;-20649
811.661;-20625
765.698;-20500
800.175;-20601
757.407;-20441
752.139;-20419
769.804;-20522
782.221;-20573
802.534;-20608
499.194;-12874
517.692;-14788
528.673;-15673
535.045;-16019
543.183;-16485
547.279;-16680
552.666;-16941
573.161;-17750
574.198;-17765
574.396;-17800
606.631;-18731
607.387;-18759
611.509;-18881
613.624;-18928
859;-20730
852.292;-20701
834.857;-20694
827.3;-20675
811.914;-20639
791.147;-20584
778.981;-20547
774.298;-20532
761.212;-20471
744.145;-20362
738.11;-20337
733.227;-20325
725.977;-20276
716.599;-20225
642.802;-19375
666.398;-19673
651.151;-19486
646.63;-19425
644.149;-19393
638.531;-19357
636.189;-19327
634.041;-19291
633.101;-19279
630.951;-19243
629.748;-19199
626.897;-19182
625.694;-19138
624.731;-19120
623.74;-19102
622.778;-19084
621.082;-19083
618.37;-19035
618.16;-19000
617.167;-18991
616.961;-18985
616.209;-18973
615.205;-18955
614.248;-18937
611.542;-18894
610.587;-18876
609.479;-18832
607.69;-18796
604.411;-18720
604.033;-18707
603.083;-18689
600.681;-18641
576.204;-17856
576.087;-17852
668.405;-19698
667.642;-19695
666.021;-19660
665.729;-19656
662.479;-19652
662.19;-19648
660.716;-19613
659.191;-19608
655.651;-19600
654.177;-19565
653.889;-19561
653.187;-19496
652.9;-19492
649.365;-19456
648.384;-19449
644.716;-19413
644.437;-19409
641.716;-19364
640.558;-19363
668.683;-19729
669.715;-19748
670.236;-19751
672.026;-19770
675.698;-19792
675.966;-19822
677.759;-19841
681.39;-19906
682.729;-19926
684.752;-19956
685.792;-19975
687.443;-20007
688.239;-20026
688.531;-20056
693.51;-20058
696.234;-20081
700.897;-20092
703.476;-20132
707.664;-20140
711.452;-20191
715.303;-20200
716.136;-20202
719.075;-20251
723.778;-20262
726.329;-20302
734.863;-20327
739.916;-20338
745.557;-20375
748.451;-20394
751.007;-20397
753.533;-20437
758.614;-20448
760.772;-20464
764.243;-20485
818.123;-20647
885.258;-20752
818.879;-20660
773.446;-20530
791.241;-20597
807.52;-20624
741.841;-20361
